
    node h0
    {
        states = ( "v1" "v2" );
        label = "h0";
    }
    

    node w0
    {
        states = ( "v15" "v20" "v25" "v30" "v35" );
        label = "w0";
    }
    

    node r0
    {
        states = ( "v10" "v15" "v20" );
        label = "r0";
    }
    

    node h1
    {
        states = ( "v1" "v2" );
        label = "h1";
    }
    

    node w1
    {
        states = ( "v15" "v20" "v25" "v30" "v35" );
        label = "w1";
    }
    

    node r1
    {
        states = ( "v10" "v15" "v20" );
        label = "r1";
    }
    

    node h2
    {
        states = ( "v1" "v2" );
        label = "h2";
    }
    

    node w2
    {
        states = ( "v15" "v20" "v25" "v30" "v35" );
        label = "w2";
    }
    

    node r2
    {
        states = ( "v10" "v15" "v20" );
        label = "r2";
    }
    
potential ( h0 | )
{
    data = 
(0.23333333333333334 0.7666666666666666);
}
    
potential ( h1 | h0)
{
    data = (
(0.7666666666666666 0.23333333333333334)
(0.23333333333333334 0.7666666666666666));
}
    
potential ( h2 | h1)
{
    data = (
(0.7666666666666666 0.23333333333333334)
(0.23333333333333334 0.7666666666666666));
}
    

potential ( w0 | h0 )
{
    data = (
(0.3333333333333333 0.2666666666666666 0.19999999999999996 0.13333333333333333 0.0666666666666667)
(0.018181818181818188 0.07272727272727271 0.16363636363636364 0.29090909090909084 0.45454545454545453));
}


potential ( r0 | h0 )
{
    data = (
(0.5 0.3333333333333333 0.16666666666666666)
(0.07142857142857142 0.2857142857142857 0.6428571428571428));
}


potential ( w1 | h1 )
{
    data = (
(0.3333333333333333 0.2666666666666666 0.19999999999999996 0.13333333333333333 0.0666666666666667)
(0.018181818181818188 0.07272727272727271 0.16363636363636364 0.29090909090909084 0.45454545454545453));
}


potential ( r1 | h1 )
{
    data = (
(0.5 0.3333333333333333 0.16666666666666666)
(0.07142857142857142 0.2857142857142857 0.6428571428571428));
}


potential ( w2 | h2 )
{
    data = (
(0.3333333333333333 0.2666666666666666 0.19999999999999996 0.13333333333333333 0.0666666666666667)
(0.018181818181818188 0.07272727272727271 0.16363636363636364 0.29090909090909084 0.45454545454545453));
}


potential ( r2 | h2 )
{
    data = (
(0.5 0.3333333333333333 0.16666666666666666)
(0.07142857142857142 0.2857142857142857 0.6428571428571428));
}

