
    node h0
    {
        states = ( "v1" "v2" );
        label = "h0";
    }
    

    node d0
    {
        states = ( "v100" "v101" "v102" "v103" "v104" "v105" );
        label = "d0";
    }
    

    node h1
    {
        states = ( "v1" "v2" );
        label = "h1";
    }
    

    node d1
    {
        states = ( "v100" "v101" "v102" "v103" "v104" "v105" );
        label = "d1";
    }
    

    node h2
    {
        states = ( "v1" "v2" );
        label = "h2";
    }
    

    node d2
    {
        states = ( "v100" "v101" "v102" "v103" "v104" "v105" );
        label = "d2";
    }
    

    node h3
    {
        states = ( "v1" "v2" );
        label = "h3";
    }
    

    node d3
    {
        states = ( "v100" "v101" "v102" "v103" "v104" "v105" );
        label = "d3";
    }
    
potential ( h0 | )
{
    data = 
(0.3666666666666667 0.6333333333333333);
}
    
potential ( h1 | h0)
{
    data = (
(0.6333333333333333 0.3666666666666667)
(0.3666666666666667 0.6333333333333333));
}
    
potential ( h2 | h1)
{
    data = (
(0.6333333333333333 0.3666666666666667)
(0.3666666666666667 0.6333333333333333));
}
    
potential ( h3 | h2)
{
    data = (
(0.6333333333333333 0.3666666666666667)
(0.3666666666666667 0.6333333333333333));
}
    

potential ( d0 | h0 )
{
	data = (
(0.22613829163550364 0.20643507240741193 0.1846411419372257 0.15990391950140576 0.13056100354984013 0.09232057096861288)
(0.04761904761904762 0.09523809523809525 0.14285714285714288 0.1904761904761905 0.2380952380952381 0.28571428571428575));
}


potential ( d1 | h1 )
{
	data = (
(0.22613829163550364 0.20643507240741193 0.1846411419372257 0.15990391950140576 0.13056100354984013 0.09232057096861288)
(0.04761904761904762 0.09523809523809525 0.14285714285714288 0.1904761904761905 0.2380952380952381 0.28571428571428575));
}


potential ( d2 | h2 )
{
	data = (
(0.22613829163550364 0.20643507240741193 0.1846411419372257 0.15990391950140576 0.13056100354984013 0.09232057096861288)
(0.04761904761904762 0.09523809523809525 0.14285714285714288 0.1904761904761905 0.2380952380952381 0.28571428571428575));
}


potential ( d3 | h3 )
{
	data = (
(0.22613829163550364 0.20643507240741193 0.1846411419372257 0.15990391950140576 0.13056100354984013 0.09232057096861288)
(0.04761904761904762 0.09523809523809525 0.14285714285714288 0.1904761904761905 0.2380952380952381 0.28571428571428575));
}

