
    node h0
    {
        states = ( "v1" "v2" );
        label = "h0";
    }
    

    node a0
    {
        states = ( "v10" "v15" "v20" "v25" );
        label = "a0";
    }
    

    node b0
    {
        states = ( "v20" "v25" "v30" "v35" );
        label = "b0";
    }
    

    node h1
    {
        states = ( "v1" "v2" );
        label = "h1";
    }
    

    node a1
    {
        states = ( "v10" "v15" "v20" "v25" );
        label = "a1";
    }
    

    node b1
    {
        states = ( "v20" "v25" "v30" "v35" );
        label = "b1";
    }
    

    node h2
    {
        states = ( "v1" "v2" );
        label = "h2";
    }
    

    node a2
    {
        states = ( "v10" "v15" "v20" "v25" );
        label = "a2";
    }
    

    node b2
    {
        states = ( "v20" "v25" "v30" "v35" );
        label = "b2";
    }
    
potential ( h0 | )
{
    data = 
(0.5 0.5);
}
    
potential ( h1 | h0)
{
    data = (
(0.9 0.1)
(0.1 0.9));
}
    
potential ( h2 | h1)
{
    data = (
(0.9 0.1)
(0.1 0.9));
}
    

potential ( a0 | h0 )
{
    data = (
(0.0 0.045325779036827184 0.2294617563739378 0.7252124645892349)
(0.5517241379310345 0.3103448275862069 0.13793103448275856 0.0));
}


potential ( b0 | h0 )
{
    data = (
(0.5517241379310345 0.3103448275862069 0.13793103448275856 0.0)
(0.0 0.045325779036827184 0.2294617563739378 0.7252124645892349));
}


potential ( a1 | h1 )
{
    data = (
(0.0 0.045325779036827184 0.2294617563739378 0.7252124645892349)
(0.5517241379310345 0.3103448275862069 0.13793103448275856 0.0));
}


potential ( b1 | h1 )
{
    data = (
(0.5517241379310345 0.3103448275862069 0.13793103448275856 0.0)
(0.0 0.045325779036827184 0.2294617563739378 0.7252124645892349));
}


potential ( a2 | h2 )
{
    data = (
(0.0 0.045325779036827184 0.2294617563739378 0.7252124645892349)
(0.5517241379310345 0.3103448275862069 0.13793103448275856 0.0));
}


potential ( b2 | h2 )
{
    data = (
(0.5517241379310345 0.3103448275862069 0.13793103448275856 0.0)
(0.0 0.045325779036827184 0.2294617563739378 0.7252124645892349));
}

