
    node h0
    {
        states = ( "v1" "v2" );
        label = "h0";
    }
    

    node a0
    {
        states = ( "v10" "v15" "v20" "v25" );
        label = "a0";
    }
    

    node b0
    {
        states = ( "v20" "v25" "v30" "v35" );
        label = "b0";
    }
    
potential ( h0 | )
{
    data = 
(0.5 0.5);
}
    

potential ( a0 | h0 )
{
    data = (
(0.0 0.045325779036827184 0.2294617563739378 0.7252124645892349)
(0.5517241379310345 0.3103448275862069 0.13793103448275856 0.0));
}


potential ( b0 | h0 )
{
    data = (
(0.5517241379310345 0.3103448275862069 0.13793103448275856 0.0)
(0.0 0.045325779036827184 0.2294617563739378 0.7252124645892349));
}

