
    node h0
    {
        states = ( "v1" "v2" );
        label = "h0";
    }
    

    node w0
    {
        states = ( "v15" "v20" "v25" "v30" "v35" );
        label = "w0";
    }
    

    node r0
    {
        states = ( "v10" "v15" "v20" );
        label = "r0";
    }
    

    node h1
    {
        states = ( "v1" "v2" );
        label = "h1";
    }
    

    node w1
    {
        states = ( "v15" "v20" "v25" "v30" "v35" );
        label = "w1";
    }
    

    node r1
    {
        states = ( "v10" "v15" "v20" );
        label = "r1";
    }
    

    node h2
    {
        states = ( "v1" "v2" );
        label = "h2";
    }
    

    node w2
    {
        states = ( "v15" "v20" "v25" "v30" "v35" );
        label = "w2";
    }
    

    node r2
    {
        states = ( "v10" "v15" "v20" );
        label = "r2";
    }
    
potential ( h0 | )
{
    data = 
(0.3666666666666667 0.6333333333333333);
}
    
potential ( h1 | h0)
{
    data = (
(0.6333333333333333 0.3666666666666667)
(0.3666666666666667 0.6333333333333333));
}
    
potential ( h2 | h1)
{
    data = (
(0.6333333333333333 0.3666666666666667)
(0.3666666666666667 0.6333333333333333));
}
    

potential ( w0 | h0 )
{
    data = (
(0.26675964216358283 0.23859707741251612 0.20663113030796126 0.16871361140968177 0.11929853870625809)
(0.06666666666666668 0.13333333333333333 0.2 0.26666666666666666 0.3333333333333333));
}


potential ( r0 | h0 )
{
    data = (
(0.4177376677004119 0.3410813774021089 0.24118095489747926)
(0.16666666666666666 0.3333333333333333 0.5));
}


potential ( w1 | h1 )
{
    data = (
(0.26675964216358283 0.23859707741251612 0.20663113030796126 0.16871361140968177 0.11929853870625809)
(0.06666666666666668 0.13333333333333333 0.2 0.26666666666666666 0.3333333333333333));
}


potential ( r1 | h1 )
{
    data = (
(0.4177376677004119 0.3410813774021089 0.24118095489747926)
(0.16666666666666666 0.3333333333333333 0.5));
}


potential ( w2 | h2 )
{
    data = (
(0.26675964216358283 0.23859707741251612 0.20663113030796126 0.16871361140968177 0.11929853870625809)
(0.06666666666666668 0.13333333333333333 0.2 0.26666666666666666 0.3333333333333333));
}


potential ( r2 | h2 )
{
    data = (
(0.4177376677004119 0.3410813774021089 0.24118095489747926)
(0.16666666666666666 0.3333333333333333 0.5));
}

