
    node h0
    {
        states = ( "v1" "v2" );
        label = "h0";
    }
    

    node d0
    {
        states = ( "v100" "v101" "v102" "v103" "v104" "v105" );
        label = "d0";
    }
    

    node h1
    {
        states = ( "v1" "v2" );
        label = "h1";
    }
    

    node d1
    {
        states = ( "v100" "v101" "v102" "v103" "v104" "v105" );
        label = "d1";
    }
    

    node h2
    {
        states = ( "v1" "v2" );
        label = "h2";
    }
    

    node d2
    {
        states = ( "v100" "v101" "v102" "v103" "v104" "v105" );
        label = "d2";
    }
    
potential ( h0 | )
{
    data = 
(0.5 0.5);
}
    
potential ( h1 | h0)
{
    data = (
(0.5 0.5)
(0.5 0.5));
}
    
potential ( h2 | h1)
{
    data = (
(0.5 0.5)
(0.5 0.5));
}
    

potential ( d0 | h0 )
{
	data = (
(0.16666666666666666 0.16666666666666666 0.16666666666666666 0.16666666666666666 0.16666666666666666 0.16666666666666666)
(0.09232057096861285 0.13056100354984013 0.15990391950140573 0.1846411419372257 0.20643507240741193 0.2261382916355036));
}


potential ( d1 | h1 )
{
	data = (
(0.16666666666666666 0.16666666666666666 0.16666666666666666 0.16666666666666666 0.16666666666666666 0.16666666666666666)
(0.09232057096861285 0.13056100354984013 0.15990391950140573 0.1846411419372257 0.20643507240741193 0.2261382916355036));
}


potential ( d2 | h2 )
{
	data = (
(0.16666666666666666 0.16666666666666666 0.16666666666666666 0.16666666666666666 0.16666666666666666 0.16666666666666666)
(0.09232057096861285 0.13056100354984013 0.15990391950140573 0.1846411419372257 0.20643507240741193 0.2261382916355036));
}

